tree
version=v3
num_class=3
num_tree_per_iteration=3
label_index=0
max_feature_idx=3
objective=multiclass num_class:3
feature_names=Column_0 Column_1 Column_2 Column_3
feature_infos=[4.2999999999999998:7.7000000000000002] [2:4.4000000000000004] [1:6.7000000000000002] [0.10000000000000001:2.5]
tree_sizes=425 521 524 634 511 529 636 530 635 631 527 527 638 532 635 634 516 529 640 529 641 638 532 533 639 530 639 633 515 533

Tree=0
num_leaves=3
num_cat=0
split_feature=2 2
split_gain=57.8049 0.057622
threshold=3.1500000000000004 1.4500000000000002
decision_type=2 2
left_child=1 -1
right_child=-2 -3
leaf_value=-0.94861228531534858 -1.1736122903444903 -0.95986228556680564
leaf_weight=9.3333334028720873 35.111111372709274 8.8888889551162702
leaf_count=21 79 20
internal_value=0 1.44512
internal_weight=0 18.2222
internal_count=120 41
shrinkage=1


Tree=1
num_leaves=4
num_cat=0
split_feature=1 1 0
split_gain=11.2636 2.92286 0.667417
threshold=3.2500000000000004 2.6500000000000008 6.2500000000000009
decision_type=2 2 2
left_child=1 -1 -3
right_child=-2 2 -4
leaf_value=-0.9942654572900389 -1.1436942984198364 -1.0452615907237375 -1.0757720979062921
leaf_weight=8.9972221851348859 16.194999933242798 15.295277714729311 13.49583327770233
leaf_count=20 36 34 30
internal_value=0 0.299034 0.143563
internal_weight=0 37.7883 28.7911
internal_count=120 84 64
shrinkage=1


Tree=2
num_leaves=4
num_cat=0
split_feature=2 2 2
split_gain=47.6795 1.52389 0.0789334
threshold=4.7500000000000009 5.3500000000000005 4.1500000000000012
decision_type=2 2 2
left_child=2 -2 -1
right_child=1 -3 -4
leaf_value=-1.1980041682107134 -1.0270639968060946 -0.97008393967122164 -1.1871508239945472
leaf_weight=24.569999933242798 8.7749999761581439 10.091249972581862 9.2137499749660474
leaf_count=56 20 23 21
internal_value=0 1.27344 -0.711141
internal_weight=0 18.8662 33.7837
internal_count=120 43 77
shrinkage=1


Tree=3
num_leaves=5
num_cat=0
split_feature=0 1 0 0
split_gain=34.1868 2.01031 0.589457 3.31623e-05
threshold=5.4500000000000011 3.3500000000000001 5.8500000000000005 6.5500000000000007
decision_type=2 2 2 2
left_child=1 -1 -2 -4
right_child=2 -3 3 -5
leaf_value=0.067861252341884157 -0.042841905075316239 0.13065314065741337 -0.072441535952783673 -0.072198788333218022
leaf_weight=9.6054091751575488 9.5988456010818464 10.866945475339888 13.243861466646196 9.7862274348735792
leaf_count=21 22 23 31 23
internal_value=0 1.01192 -0.636611 -0.723384
internal_weight=0 20.4724 32.6289 23.0301
internal_count=120 44 76 54
shrinkage=0.1


Tree=4
num_leaves=4
num_cat=0
split_feature=2 3 3
split_gain=13.2297 27.4618 0.25116
threshold=1.8 1.6500000000000001 1.3500000000000003
decision_type=2 2 2
left_child=-1 2 -2
right_child=1 -3 -4
leaf_value=-0.073997021952301845 0.11964948715881402 -0.063100647546875124 0.097481205990526607
leaf_weight=16.636294573545456 11.583786785602571 16.47285008430481 9.1459933817386609
leaf_count=38 25 37 20
internal_value=0 0.332801 1.09869
internal_weight=0 37.2026 20.7298
internal_count=120 82 45
shrinkage=0.1


Tree=5
num_leaves=4
num_cat=0
split_feature=0 0 1
split_gain=17.5489 1.70624 0.392837
threshold=5.7500000000000009 6.2500000000000009 3.0500000000000003
decision_type=2 2 2
left_child=2 -2 -1
right_child=1 -3 -4
leaf_value=-0.046259011028998528 0.021188444217793159 0.07397875418888232 -0.071276983495952337
leaf_weight=11.49957984685898 9.3293446302413958 17.811763346195221 13.818253606557844
leaf_count=27 21 39 33
internal_value=0 0.558329 -0.599136
internal_weight=0 27.1411 25.3178
internal_count=120 60 60
shrinkage=0.1


Tree=6
num_leaves=5
num_cat=0
split_feature=2 2 2 3
split_gain=42.6937 0.0603397 0.00169094 0.000160394
threshold=3.1500000000000004 1.4500000000000002 4.5500000000000007 1.8500000000000003
decision_type=2 2 2 2
left_child=1 -1 -2 -4
right_child=2 -3 3 -5
leaf_value=0.12055957419150741 -0.071567855077209808 0.10954429273504857 -0.069798596090159176 -0.070364879358155871
leaf_weight=10.185953468084337 12.603946685791014 9.7167997658252698 9.7437393367290515 10.277363002300261
leaf_count=21 30 20 24 25
internal_value=0 1.15182 -0.706605 -0.700893
internal_weight=0 19.9028 32.625 20.0211
internal_count=120 41 79 49
shrinkage=0.1


Tree=7
num_leaves=4
num_cat=0
split_feature=1 1 0
split_gain=8.92399 1.93963 0.486604
threshold=3.2500000000000004 2.6500000000000008 6.2500000000000009
decision_type=2 2 2
left_child=1 -1 -3
right_child=-2 2 -4
leaf_value=0.065085487704627673 -0.064876346947257885 0.025038236486486117 -0.00099214445733015197
leaf_weight=9.4950886964797956 15.097832053899763 15.5114141702652 13.372905284166334
leaf_count=20 36 34 30
internal_value=0 0.258759 0.129867
internal_weight=0 38.3794 28.8843
internal_count=120 84 64
shrinkage=0.1


Tree=8
num_leaves=5
num_cat=0
split_feature=2 2 2 3
split_gain=36.8807 0.942604 0.037522 0.000333749
threshold=4.7500000000000009 5.3500000000000005 4.1500000000000012 0.35000000000000003
decision_type=2 2 2 2
left_child=2 -2 3 -1
right_child=1 -3 -4 -5
leaf_value=-0.069321746925547226 0.081585880169684502 0.12477594287903104 -0.062027923076177549 -0.070100995098074242
leaf_weight=13.257017374038702 9.3161879181861895 11.042812794446943 9.0527858734130842 9.3888039290904981
leaf_count=33 20 23 21 23
internal_value=0 1.05012 -0.674695 -0.696448
internal_weight=0 20.359 31.6986 22.6458
internal_count=120 43 77 56
shrinkage=0.1


Tree=9
num_leaves=5
num_cat=0
split_feature=0 1 1 0
split_gain=25.2741 1.28081 0.55216 0.00140352
threshold=5.4500000000000011 3.3500000000000001 3.0500000000000003 5.9500000000000011
decision_type=2 2 2 2
left_child=1 -1 3 -2
right_child=2 -3 -4 -5
leaf_value=0.056392506385064489 -0.069476619528103398 0.1054459733849704 -0.039186466814405893 -0.067805505378414774
leaf_weight=9.9346099793910998 8.4681806564331108 11.466411471366881 9.3060632050037366 12.363336265087126
leaf_count=21 21 23 23 32
internal_value=0 0.826748 -0.594379 -0.684848
internal_weight=0 21.401 30.1376 20.8315
internal_count=120 44 76 53
shrinkage=0.1


Tree=10
num_leaves=4
num_cat=0
split_feature=3 3 3
split_gain=11.0114 22.468 0.167797
threshold=0.45000000000000007 1.6500000000000001 1.3500000000000003
decision_type=2 2 2
left_child=-1 2 -2
right_child=1 -3 -4
leaf_value=-0.070348889814910595 0.1041265432466692 -0.060463009840725807 0.08635438140018209
leaf_weight=15.534606099128721 12.057600051164629 15.87885996699333 9.4968510270118696
leaf_count=38 25 37 20
internal_value=0 0.298004 0.962962
internal_weight=0 37.4333 21.5545
internal_count=120 82 45
shrinkage=0.1


Tree=11
num_leaves=4
num_cat=0
split_feature=0 0 1
split_gain=12.9382 1.1161 0.378392
threshold=5.7500000000000009 6.2500000000000009 3.0500000000000003
decision_type=2 2 2
left_child=2 -2 -1
right_child=1 -3 -4
leaf_value=-0.04143541604100235 0.017684052332682148 0.059890587166438206 -0.067031648590068299
leaf_weight=10.736696302890779 9.44328820705414 18.617571502923965 12.49899449944496
leaf_count=27 21 39 33
internal_value=0 0.456869 -0.552042
internal_weight=0 28.0609 23.2357
internal_count=120 60 60
shrinkage=0.1


Tree=12
num_leaves=5
num_cat=0
split_feature=2 2 2 3
split_gain=32.9679 0.0605038 0.00302259 0.000245988
threshold=3.1500000000000004 1.4500000000000002 4.5500000000000007 1.8500000000000003
decision_type=2 2 2 2
left_child=1 -1 -2 -4
right_child=2 -3 3 -5
leaf_value=0.102733708622951 -0.068601870042566501 0.091838777366020252 -0.066166097296831164 -0.066900689307074282
leaf_weight=10.449980169534685 11.746616005897524 9.9510957300662977 8.8282934725284594 9.4251763224601728
leaf_count=21 30 20 24 25
internal_value=0 0.974195 -0.673506 -0.665454
internal_weight=0 20.4011 30.0001 18.2535
internal_count=120 41 79 49
shrinkage=0.1


Tree=13
num_leaves=4
num_cat=0
split_feature=1 1 0
split_gain=7.08115 1.28932 0.334549
threshold=3.2500000000000004 2.6500000000000008 6.2500000000000009
decision_type=2 2 2
left_child=1 -1 -3
right_child=-2 2 -4
leaf_value=0.054201110996728696 -0.060709373811233563 0.021988590836227843 0.00029745374206439316
leaf_weight=9.7182199060916883 13.841984540224074 15.515698552131655 13.125430911779402
leaf_count=20 36 34 30
internal_value=0 0.227275 0.120481
internal_weight=0 38.3593 28.6411
internal_count=120 84 64
shrinkage=0.1


Tree=14
num_leaves=5
num_cat=0
split_feature=2 2 2 3
split_gain=29.4811 0.707498 0.0196295 0.000846261
threshold=4.7500000000000009 5.3500000000000005 4.1500000000000012 0.35000000000000003
decision_type=2 2 2 2
left_child=2 -2 3 -1
right_child=1 -3 -4 -5
leaf_value=-0.065725474103166037 0.070382242788846833 0.10715402586094552 -0.060636955393060958 -0.067023714476684079
leaf_weight=11.970116198062902 9.6502145826816577 11.429295957088469 8.8375127315521222 8.6489894390106183
leaf_count=33 20 23 21 23
internal_value=0 0.903199 -0.6458 -0.6627
internal_weight=0 21.0795 29.4566 20.6191
internal_count=120 43 77 56
shrinkage=0.1


Tree=15
num_leaves=5
num_cat=0
split_feature=0 1 1 0
split_gain=19.2384 0.921932 0.50132 0.00136671
threshold=5.4500000000000011 3.3500000000000001 3.0500000000000003 5.9500000000000011
decision_type=2 2 2 2
left_child=1 -1 3 -2
right_child=2 -3 -4 -5
leaf_value=0.048255520321064435 -0.066233890152408798 0.089904451037692013 -0.036205329263371534 -0.064504295216916696
leaf_weight=9.9962877333164233 7.7639044821262422 11.348825782537459 8.705230236053465 11.101033419370649
leaf_count=21 21 23 23 32
internal_value=0 0.703995 -0.56056 -0.652161
internal_weight=0 21.3451 27.5702 18.8649
internal_count=120 44 76 53
shrinkage=0.1


Tree=16
num_leaves=4
num_cat=0
split_feature=2 3 3
split_gain=9.14308 18.5325 0.106865
threshold=1.8 1.6500000000000001 1.3500000000000003
decision_type=2 2 2
left_child=-1 2 -2
right_child=1 -3 -4
leaf_value=-0.067226687716448075 0.091933804382558729 -0.057956907460728346 0.077882827684275194
leaf_weight=14.278797239065169 12.232977688312532 15.195823967456816 9.7086656093597394
leaf_count=38 25 37 20
internal_value=0 0.269286 0.857166
internal_weight=0 37.1375 21.9416
internal_count=120 82 45
shrinkage=0.1


Tree=17
num_leaves=4
num_cat=0
split_feature=0 0 1
split_gain=9.70228 0.773323 0.368755
threshold=5.7500000000000009 6.2500000000000009 3.0500000000000003
decision_type=2 2 2
left_child=2 -2 -1
right_child=1 -3 -4
leaf_value=-0.037272969519894207 0.015014981895704136 0.05007088679242136 -0.06373839060847887
leaf_weight=9.9863412678241747 9.451909542083742 18.827057540416718 11.135248482227324
leaf_count=27 21 39 33
internal_value=0 0.383539 -0.512255
internal_weight=0 28.279 21.1216
internal_count=120 60 60
shrinkage=0.1


Tree=18
num_leaves=5
num_cat=0
split_feature=2 2 2 2
split_gain=26.2012 0.0600924 0.00388525 0.000264664
threshold=3.1500000000000004 1.4500000000000002 4.5500000000000007 5.3500000000000005
decision_type=2 2 2 2
left_child=1 -1 -2 -4
right_child=2 -3 3 -5
leaf_value=0.091017810426949577 -0.066239737729220996 0.080065887519708806 -0.064175342409150807 -0.063372266326326421
leaf_weight=10.289988219738008 10.861726224422457 9.7638779282569867 8.8887881636619586 7.6232149302959433
leaf_count=21 30 20 26 23
internal_value=0 0.856855 -0.647708 -0.638046
internal_weight=0 20.0539 27.3737 16.512
internal_count=120 41 79 49
shrinkage=0.1


Tree=19
num_leaves=4
num_cat=0
split_feature=1 1 0
split_gain=5.65328 0.860609 0.224849
threshold=3.2500000000000004 2.6500000000000008 6.2500000000000009
decision_type=2 2 2
left_child=1 -1 -3
right_child=-2 2 -4
leaf_value=0.045927677922960125 -0.057234431211938656 0.01957608168684398 0.0016211377402989662
leaf_weight=9.7137187719345075 12.528814017772673 15.321619659662248 12.80266088247299
leaf_count=20 36 34 30
internal_value=0 0.202659 0.114027
internal_weight=0 37.838 28.1243
internal_count=120 84 64
shrinkage=0.1


Tree=20
num_leaves=5
num_cat=0
split_feature=3 3 2 2
split_gain=24.0535 0.69109 0.00866424 0.000189718
threshold=1.6500000000000001 1.3500000000000003 3.1500000000000004 1.4500000000000002
decision_type=2 2 2 2
left_child=1 2 3 -1
right_child=-2 -3 -4 -5
leaf_value=-0.063212793817201324 0.090698000226653752 -0.031090046998295082 -0.066988381798987515 -0.062454106619394427
leaf_weight=6.8533518314361626 18.255050987005234 8.7626825571060163 8.1883888542652112 6.3497112691402435
leaf_count=21 37 20 22 20
internal_value=0 -0.547435 -0.644328 -0.628479
internal_weight=0 30.1541 21.3915 13.2031
internal_count=120 83 63 41
shrinkage=0.1


Tree=21
num_leaves=5
num_cat=0
split_feature=0 1 0 1
split_gain=14.9571 0.738336 0.469565 0.000620336
threshold=5.4500000000000011 3.3500000000000001 5.8500000000000005 3.0500000000000003
decision_type=2 2 2 2
left_child=1 -1 -2 -4
right_child=2 -3 3 -5
leaf_value=0.041984658437138896 -0.033036132427824889 0.079881169544090691 -0.062056141276071786 -0.063291676429702265
leaf_weight=9.8526192605495471 7.8707239031791714 10.750935256481169 10.583377391099932 6.5964705646038047
leaf_count=21 22 23 34 20
internal_value=0 0.617591 -0.532636 -0.625305
internal_weight=0 20.6036 25.0506 17.1798
internal_count=120 44 76 54
shrinkage=0.1


Tree=22
num_leaves=4
num_cat=0
split_feature=3 2 3
split_gain=7.70378 15.7826 0.0953841
threshold=0.45000000000000007 4.9500000000000011 1.3500000000000003
decision_type=2 2 2
left_child=-1 2 -2
right_child=1 -3 -4
leaf_value=-0.064824037711884983 0.083673341169611226 -0.057290629205290856 0.07047894530171081
leaf_weight=13.038770765066145 12.063351452350618 14.249002844095228 10.038035243749617
leaf_count=38 25 36 21
internal_value=0 0.247732 0.776807
internal_weight=0 36.3504 22.1014
internal_count=120 82 46
shrinkage=0.1


Tree=23
num_leaves=4
num_cat=0
split_feature=0 0 1
split_gain=7.39207 0.552774 0.357692
threshold=5.7500000000000009 6.2500000000000009 3.0500000000000003
decision_type=2 2 2
left_child=2 -2 -1
right_child=1 -3 -4
leaf_value=-0.033784399458131373 0.013037914530557498 0.042821642798475883 -0.061173669651598664
leaf_weight=9.2856413424015063 9.3636676371097582 18.628735333681107 9.8007777333259565
leaf_count=27 21 39 33
internal_value=0 0.328588 -0.478486
internal_weight=0 27.9924 19.0864
internal_count=120 60 60
shrinkage=0.1


Tree=24
num_leaves=5
num_cat=0
split_feature=2 2 2 2
split_gain=21.203 0.0599668 0.00443374 0.000274542
threshold=3.1500000000000004 1.4500000000000002 4.5500000000000007 5.3500000000000005
decision_type=2 2 2 2
left_child=1 -1 -2 -4
right_child=2 -3 3 -5
leaf_value=0.08286291074188587 -0.064237678551612151 0.071666612778798586 -0.061909925059491028 -0.061045978314320397
leaf_weight=9.8481017053127307 10.016922026872637 9.3021876811981183 8.0244216322898847 6.7910224795341483
leaf_count=21 30 20 26 23
internal_value=0 0.774243 -0.626126 -0.615139
internal_weight=0 19.1503 24.8324 14.8154
internal_count=120 41 79 49
shrinkage=0.1


Tree=25
num_leaves=4
num_cat=0
split_feature=1 1 0
split_gain=4.5386 0.581649 0.188904
threshold=3.2500000000000004 2.6500000000000008 5.8500000000000005
decision_type=2 2 2
left_child=1 -1 -3
right_child=-2 2 -4
leaf_value=0.039544338603426252 -0.054265361443753934 0.00018635723880055364 0.017320053683591893
leaf_weight=9.5513684749603254 11.24064865708351 10.296474337577822 17.157772213220596
leaf_count=20 36 24 40
internal_value=0 0.18289 0.108942
internal_weight=0 37.0056 27.4542
internal_count=120 84 64
shrinkage=0.1


Tree=26
num_leaves=5
num_cat=0
split_feature=2 3 2 3
split_gain=20.0218 0.524836 0.00658386 0.00133449
threshold=4.7500000000000009 1.9500000000000002 4.1500000000000012 0.35000000000000003
decision_type=2 2 2 2
left_child=2 -2 3 -1
right_child=1 -3 -4 -5
leaf_value=-0.060740374739069861 0.057511183829450918 0.08924725551121046 -0.058082450969609983 -0.062549692350627212
leaf_weight=9.4293369650840813 11.283611387014391 9.6824904978275281 8.3650025427341443 7.1809164285659781
leaf_count=33 23 20 21 23
internal_value=0 0.721674 -0.603704 -0.615226
internal_weight=0 20.9661 24.9753 16.6103
internal_count=120 43 77 56
shrinkage=0.1


Tree=27
num_leaves=5
num_cat=0
split_feature=0 1 1 0
split_gain=11.7443 0.62934 0.450654 0.00115589
threshold=5.4500000000000011 3.3500000000000001 3.0500000000000003 5.9500000000000011
decision_type=2 2 2 2
left_child=1 -1 3 -2
right_child=2 -3 -4 -5
leaf_value=0.036796305762945111 -0.061738820794122774 0.072790486671718627 -0.030596179363362914 -0.059977230503000793
leaf_weight=9.570749372243883 6.448747634887698 9.8640384674072248 7.3594883680343619 8.8183446824550611
leaf_count=21 21 23 23 32
internal_value=0 0.55065 -0.509229 -0.607213
internal_weight=0 19.4348 22.6266 15.2671
internal_count=120 44 76 53
shrinkage=0.1


Tree=28
num_leaves=4
num_cat=0
split_feature=2 3 3
split_gain=6.4561 13.4154 0.0750984
threshold=1.8 1.6500000000000001 1.3500000000000003
decision_type=2 2 2
left_child=-1 2 -2
right_child=1 -3 -4
leaf_value=-0.062693861604971951 0.077520553235226858 -0.053984641265522548 0.065677970890374526
leaf_weight=11.754609823226927 11.737747341394426 13.849515825510023 9.8468344807624799
leaf_count=38 25 37 20
internal_value=0 0.228304 0.72118
internal_weight=0 35.4341 21.5846
internal_count=120 82 45
shrinkage=0.1


Tree=29
num_leaves=4
num_cat=0
split_feature=0 0 1
split_gain=5.57052 0.404704 0.364191
threshold=5.7500000000000009 6.2500000000000009 3.0500000000000003
decision_type=2 2 2
left_child=2 -2 -1
right_child=1 -3 -4
leaf_value=-0.029971656561721939 0.011150864840403662 0.036854799031036188 -0.059149998728351999
leaf_weight=8.5665605068206805 9.2448460459709185 18.153780043125153 8.5441738516092283
leaf_count=27 21 39 33
internal_value=0 0.281818 -0.445417
internal_weight=0 27.3986 17.1107
internal_count=120 60 60
shrinkage=0.1


end of trees

feature importances:
Column_2=33
Column_0=26
Column_1=24
Column_3=19

parameters:
[boosting: gbdt]
[objective: multiclass]
[metric: multi_logloss]
[tree_learner: serial]
[device_type: cpu]
[data: ]
[valid: ]
[num_iterations: 100]
[learning_rate: 0.1]
[num_leaves: 31]
[num_threads: 0]
[max_depth: -1]
[min_data_in_leaf: 20]
[min_sum_hessian_in_leaf: 0.001]
[bagging_fraction: 0.5]
[pos_bagging_fraction: 1]
[neg_bagging_fraction: 1]
[bagging_freq: 0]
[bagging_seed: 400]
[feature_fraction: 0.6]
[feature_fraction_bynode: 1]
[feature_fraction_seed: 30056]
[early_stopping_round: 0]
[first_metric_only: 0]
[max_delta_step: 0]
[lambda_l1: 0]
[lambda_l2: 0]
[min_gain_to_split: 0]
[drop_rate: 0.1]
[max_drop: 50]
[skip_drop: 0.5]
[xgboost_dart_mode: 0]
[uniform_drop: 0]
[drop_seed: 17869]
[top_rate: 0.2]
[other_rate: 0.1]
[min_data_per_group: 100]
[max_cat_threshold: 32]
[cat_l2: 10]
[cat_smooth: 10]
[max_cat_to_onehot: 4]
[top_k: 20]
[monotone_constraints: ]
[feature_contri: ]
[forcedsplits_filename: ]
[forcedbins_filename: ]
[refit_decay_rate: 0.9]
[cegb_tradeoff: 1]
[cegb_penalty_split: 0]
[cegb_penalty_feature_lazy: ]
[cegb_penalty_feature_coupled: ]
[verbosity: 1]
[max_bin: 255]
[max_bin_by_feature: ]
[min_data_in_bin: 3]
[bin_construct_sample_cnt: 200000]
[histogram_pool_size: -1]
[data_random_seed: 175]
[output_model: LightGBM_model.txt]
[snapshot_freq: -1]
[input_model: ]
[output_result: LightGBM_predict_result.txt]
[initscore_filename: ]
[valid_data_initscores: ]
[pre_partition: 0]
[enable_bundle: 1]
[max_conflict_rate: 0]
[is_enable_sparse: 1]
[sparse_threshold: 0.8]
[use_missing: 1]
[zero_as_missing: 0]
[two_round: 0]
[save_binary: 0]
[header: 0]
[label_column: ]
[weight_column: ]
[group_column: ]
[ignore_column: ]
[categorical_feature: ]
[predict_raw_score: 0]
[predict_leaf_index: 0]
[predict_contrib: 0]
[num_iteration_predict: -1]
[pred_early_stop: 0]
[pred_early_stop_freq: 10]
[pred_early_stop_margin: 10]
[convert_model_language: ]
[convert_model: gbdt_prediction.cpp]
[num_class: 3]
[is_unbalance: 0]
[scale_pos_weight: 1]
[sigmoid: 1]
[boost_from_average: 1]
[reg_sqrt: 0]
[alpha: 0.9]
[fair_c: 1]
[poisson_max_delta_step: 0.7]
[tweedie_variance_power: 1.5]
[max_position: 20]
[lambdamart_norm: 1]
[label_gain: ]
[metric_freq: 1]
[is_provide_training_metric: 0]
[eval_at: ]
[multi_error_top_k: 1]
[num_machines: 1]
[local_listen_port: 12400]
[time_out: 120]
[machine_list_filename: ]
[machines: ]
[gpu_platform_id: -1]
[gpu_device_id: -1]
[gpu_use_dp: 0]

end of parameters

pandas_categorical:null
