tree
version=v3
num_class=3
num_tree_per_iteration=3
label_index=0
max_feature_idx=3
objective=multiclass num_class:3
feature_names=Column_0 Column_1 Column_2 Column_3
feature_infos=[4.2999999999999998:7.7000000000000002] [2:4.4000000000000004] [1:6.7000000000000002] [0.10000000000000001:2.5]
tree_sizes=425 507 524 635 514 533 638 526 634 636 515 634 538 530 638 641 529 636 640 532 639 639 516 638 641 517 640 642 530 642

Tree=0
num_leaves=3
num_cat=0
split_feature=2 2
split_gain=57.8049 0.057622
threshold=3.1500000000000004 1.4500000000000002
decision_type=2 2
left_child=1 -1
right_child=-2 -3
leaf_value=-0.94861228531534858 -1.1736122903444903 -0.95986228556680564
leaf_weight=9.3333334028720873 35.111111372709274 8.8888889551162702
leaf_count=21 79 20
internal_value=0 1.44512
internal_weight=0 18.2222
internal_count=120 41
shrinkage=1


Tree=1
num_leaves=4
num_cat=0
split_feature=2 2 2
split_gain=14.4304 29.5917 1.48625
threshold=1.8 4.7500000000000009 5.3500000000000005
decision_type=2 2 2
left_child=-1 -2 -3
right_child=1 2 -4
leaf_value=-1.1498690439210677 -0.94467750111091986 -1.0942963344099861 -1.1498690439210677
leaf_weight=17.094722151756287 17.544583261013031 8.9972221851348895 10.346805512905119
leaf_count=38 39 20 23
internal_value=0 0.351961 -0.501016
internal_weight=0 36.8886 19.344
internal_count=120 82 43
shrinkage=1


Tree=2
num_leaves=4
num_cat=0
split_feature=2 2 2
split_gain=47.6795 1.52389 0.0789334
threshold=4.7500000000000009 5.3500000000000005 4.1500000000000012
decision_type=2 2 2
left_child=2 -2 -1
right_child=1 -3 -4
leaf_value=-1.1980041682107134 -1.0270639968060946 -0.97008393967122164 -1.1871508239945472
leaf_weight=24.569999933242798 8.7749999761581439 10.091249972581862 9.2137499749660474
leaf_count=56 20 23 21
internal_value=0 1.27344 -0.711141
internal_weight=0 18.8662 33.7837
internal_count=120 43 77
shrinkage=1


Tree=3
num_leaves=5
num_cat=0
split_feature=2 2 2 3
split_gain=48.234 0.0336976 6.87701e-06 1.12565e-06
threshold=3.1500000000000004 1.4500000000000002 5.3500000000000005 1.3500000000000003
decision_type=2 2 2 2
left_child=1 -1 3 -2
right_child=2 -3 -4 -5
leaf_value=0.12984884531336768 -0.072351165720613828 0.1214997928310918 -0.072224721367806666 -0.072306732812781521
leaf_weight=9.9451594054698962 9.3935708999633807 9.4066188633441907 9.7992399632930738 14.506318837404249
leaf_count=21 22 20 23 34
internal_value=0 1.2579 -0.722953 -0.723242
internal_weight=0 19.3518 33.6991 23.8999
internal_count=120 41 79 56
shrinkage=0.1


Tree=4
num_leaves=4
num_cat=0
split_feature=2 2 2
split_gain=12.6238 24.0919 1.37379
threshold=1.8 4.7500000000000009 5.3500000000000005
decision_type=2 2 2
left_child=-1 -2 -3
right_child=1 2 -4
leaf_value=-0.073043664921696422 0.11328918183576829 -0.01889694900532185 -0.073004407469042285
leaf_weight=16.412245154380798 18.484737664461136 8.8988268375396746 9.9275191426277143
leaf_count=38 39 20 23
internal_value=0 0.321944 -0.474289
internal_weight=0 37.3111 18.8263
internal_count=120 82 43
shrinkage=0.1


Tree=5
num_leaves=4
num_cat=0
split_feature=3 3 0
split_gain=39.7249 1.21194 6.64539e-05
threshold=1.6500000000000001 1.3500000000000003 5.1500000000000012
decision_type=2 2 2
left_child=1 2 -1
right_child=-2 -3 -4
leaf_value=-0.071327588350802232 0.12466193954841723 -0.028527167318411074 -0.071644742318912755
leaf_weight=13.828807264566423 17.178867965936661 8.7368004918098432 12.650171995162962
leaf_count=33 37 20 30
internal_value=0 -0.60823 -0.714791
internal_weight=0 35.2158 26.479
internal_count=120 83 63
shrinkage=0.1


Tree=6
num_leaves=5
num_cat=0
split_feature=2 2 3 3
split_gain=40.9251 0.0219592 0.000150619 2.29972e-05
threshold=3.1500000000000004 1.4500000000000002 1.6500000000000001 1.3500000000000003
decision_type=2 2 2 2
left_child=1 -1 3 -2
right_child=2 -3 -4 -5
leaf_value=0.11523858789381387 -0.070046321650785809 0.10861760589686822 -0.069723285623917525 -0.070277871668978684
leaf_weight=10.316395610570909 8.9884705841541308 9.7373180687427503 15.010195404291151 8.2044302225112897
leaf_count=21 22 20 37 20
internal_value=0 1.12024 -0.699547 -0.701568
internal_weight=0 20.0537 32.2031 17.1929
internal_count=120 41 79 42
shrinkage=0.1


Tree=7
num_leaves=4
num_cat=0
split_feature=3 3 3
split_gain=11.3971 21.877 0.162652
threshold=0.45000000000000007 1.6500000000000001 1.3500000000000003
decision_type=2 2 2
left_child=-1 2 -2
right_child=1 -3 -4
leaf_value=-0.071086999613282242 0.1033444149091562 -0.059528854482024968 0.085843610050220176
leaf_weight=15.786182552576063 12.101509481668474 15.69330522418022 9.4635299444198591
leaf_count=38 25 37 20
internal_value=0 0.302966 0.956644
internal_weight=0 37.2583 21.565
internal_count=120 82 45
shrinkage=0.1


Tree=8
num_leaves=5
num_cat=0
split_feature=2 2 1 0
split_gain=34.0225 0.924396 0.0825802 0.000421735
threshold=4.7500000000000009 5.3500000000000005 2.8500000000000001 5.2500000000000009
decision_type=2 2 2 2
left_child=2 -2 -1 -4
right_child=1 -3 3 -5
leaf_value=-0.05783888415734395 0.076319473319310049 0.11873280322718016 -0.069020757796764629 -0.069889942732174581
leaf_weight=8.484624922275545 9.4879768788814562 11.210115671157835 12.366587430238726 10.175644427537916
leaf_count=21 20 23 31 25
internal_value=0 0.992906 -0.66248 -0.694131
internal_weight=0 20.6981 31.0269 22.5422
internal_count=120 43 77 56
shrinkage=0.1


Tree=9
num_leaves=5
num_cat=0
split_feature=2 2 2 2
split_gain=35.109 0.0167092 4.4476e-05 8.40695e-06
threshold=3.1500000000000004 1.4500000000000002 5.3500000000000005 4.7500000000000009
decision_type=2 2 2 2
left_child=1 -1 3 -2
right_child=2 -3 -4 -5
leaf_value=0.10421384859331172 -0.067904253415129526 0.098488047264311235 -0.067685084342713128 -0.068033880823678922
leaf_weight=10.482829391956331 13.978521704673772 9.9192502796649915 8.8782622814178449 7.7920974791049948
leaf_count=21 36 20 23 20
internal_value=0 1.0143 -0.678737 -0.679506
internal_weight=0 20.4021 30.6489 21.7706
internal_count=120 41 79 56
shrinkage=0.1


Tree=10
num_leaves=4
num_cat=0
split_feature=2 2 0
split_gain=9.88047 17.6583 0.144041
threshold=1.8 4.9500000000000011 5.7500000000000009
decision_type=2 2 2
left_child=-1 2 -2
right_child=1 -3 -4
leaf_value=-0.068446017492372765 0.075573862291685154 -0.057058747703801593 0.091639384903962395
leaf_weight=14.946909159421919 10.772554457187654 14.753941148519514 11.579806447029112
leaf_count=38 22 36 24
internal_value=0 0.27851 0.838967
internal_weight=0 37.1063 22.3524
internal_count=120 82 46
shrinkage=0.1


Tree=11
num_leaves=5
num_cat=0
split_feature=2 2 1 0
split_gain=29.192 0.798865 0.0814065 0.000506017
threshold=4.7500000000000009 5.3500000000000005 2.8500000000000001 5.2500000000000009
decision_type=2 2 2 2
left_child=2 -2 -1 -4
right_child=1 -3 3 -5
leaf_value=-0.055645841684220147 0.06864890338358734 0.10766573989982318 -0.066957156233584489 -0.067933443247012559
leaf_weight=8.1283001303672808 9.7009713947772997 11.431578278541563 11.71575301885605 9.7082201242446882
leaf_count=21 20 23 31 25
internal_value=0 0.897549 -0.641667 -0.673996
internal_weight=0 21.1325 29.5523 21.424
internal_count=120 43 77 56
shrinkage=0.1


Tree=12
num_leaves=4
num_cat=0
split_feature=3 1 0
split_gain=29.2239 0.26438 0.000824069
threshold=0.45000000000000007 3.0500000000000003 5.7500000000000009
decision_type=2 2 2
left_child=-1 2 -2
right_child=1 -3 -4
leaf_value=0.097192782084095597 -0.067367029779921636 -0.045632852449328784 -0.066094835684392381
leaf_weight=18.956293135881424 7.8876286745071473 8.2998437881469709 14.363680511713026
leaf_count=38 21 22 39
internal_value=0 -0.608644 -0.665458
internal_weight=0 30.5512 22.2513
internal_count=120 82 60
shrinkage=0.1


Tree=13
num_leaves=4
num_cat=0
split_feature=3 3 3
split_gain=8.98013 16.546 0.110525
threshold=0.45000000000000007 1.6500000000000001 1.3500000000000003
decision_type=2 2 2
left_child=-1 2 -2
right_child=1 -3 -4
leaf_value=-0.067030860013401292 0.087836401840624689 -0.055775705530282098 0.073524536904321702
leaf_weight=14.254775851964949 12.283385425806047 14.635702073574064 9.6233600974082929
leaf_count=38 25 37 20
internal_value=0 0.26549 0.815494
internal_weight=0 36.5424 21.9067
internal_count=120 82 45
shrinkage=0.1


Tree=14
num_leaves=5
num_cat=0
split_feature=2 2 1 0
split_gain=25.2374 0.687382 0.0810379 0.000503468
threshold=4.7500000000000009 5.3500000000000005 2.8500000000000001 5.2500000000000009
decision_type=2 2 2 2
left_child=2 -2 -1 -4
right_child=1 -3 3 -5
leaf_value=-0.053603679475418976 0.06265495616114812 0.098674265741212797 -0.065153284613545345 -0.066154087246789076
leaf_weight=7.7816534042358425 9.8349763751029986 11.485577136278151 11.051673322916033 9.2202296555042249
leaf_count=21 20 23 31 25
internal_value=0 0.820589 -0.622785 -0.656085
internal_weight=0 21.3206 28.0536 20.2719
internal_count=120 43 77 56
shrinkage=0.1


Tree=15
num_leaves=5
num_cat=0
split_feature=2 2 2 3
split_gain=26.7186 0.00781521 0.000207119 5.13033e-05
threshold=3.1500000000000004 1.4500000000000002 5.3500000000000005 1.3500000000000003
decision_type=2 2 2 2
left_child=1 -1 3 -2
right_child=2 -3 -4 -5
leaf_value=0.088787938893676421 -0.064500799245779381 0.084853742694337139 -0.064096329443307551 -0.064831995579636828
leaf_weight=10.33251863718033 7.6678788065910402 9.8749173581600171 7.8911863863468161 11.991145610809324
leaf_count=21 22 20 23 34
internal_value=0 0.868654 -0.645291 -0.647028
internal_weight=0 20.2074 27.5502 19.659
internal_count=120 41 79 56
shrinkage=0.1


Tree=16
num_leaves=4
num_cat=0
split_feature=3 3 3
split_gain=7.91932 14.1587 0.0847962
threshold=0.45000000000000007 1.6500000000000001 1.3500000000000003
decision_type=2 2 2
left_child=-1 2 -2
right_child=1 -3 -4
leaf_value=-0.06517744572751559 0.080639860798012691 -0.05364333738464408 0.068098795901920015
leaf_weight=13.424392640590666 12.24460604786873 14.007880717515944 9.6330338120460492
leaf_count=38 25 37 20
internal_value=0 0.24856 0.751179
internal_weight=0 35.8855 21.8776
internal_count=120 82 45
shrinkage=0.1


Tree=17
num_leaves=5
num_cat=0
split_feature=2 2 1 0
split_gain=21.9798 0.64817 0.0814786 0.000434919
threshold=4.7500000000000009 5.3500000000000005 2.8500000000000001 5.2500000000000009
decision_type=2 2 2 2
left_child=2 -2 -1 -4
right_child=1 -3 3 -5
leaf_value=-0.051688458762453197 0.05708953103077638 0.092066230916872938 -0.063589374410155594 -0.064546851540038697
leaf_weight=7.4335876405239132 9.9058769941329974 11.390559017658232 10.406944125890734 8.7184203565120679
leaf_count=21 20 23 31 25
internal_value=0 0.757971 -0.605727 -0.640258
internal_weight=0 21.2964 26.559 19.1254
internal_count=120 43 77 56
shrinkage=0.1


Tree=18
num_leaves=5
num_cat=0
split_feature=2 2 2 3
split_gain=23.4527 0.00753574 0.000354403 0.00012112
threshold=3.1500000000000004 1.4500000000000002 5.3500000000000005 1.3500000000000003
decision_type=2 2 2 2
left_child=1 -1 3 -2
right_child=2 -3 -4 -5
leaf_value=0.083286363103123512 -0.063025329322597065 0.079383748736332096 -0.062526526830911672 -0.063548994158594205
leaf_weight=10.077063113451006 7.2138797640800538 9.720669209957121 7.3684315979480735 11.391461372375487
leaf_count=21 22 20 23 34
internal_value=0 0.813702 -0.631135 -0.63346
internal_weight=0 19.7977 25.9738 18.6053
internal_count=120 41 79 56
shrinkage=0.1


Tree=19
num_leaves=4
num_cat=0
split_feature=3 3 1
split_gain=7.0309 12.2559 0.0811546
threshold=0.45000000000000007 1.6500000000000001 2.7500000000000004
decision_type=2 2 2
left_child=-1 2 -2
right_child=1 -3 -4
leaf_value=-0.063578819101706249 0.076866476990981689 -0.051679147189817878 0.064544773886452758
leaf_weight=12.609933763742445 9.6374661624431628 13.394273012876509 12.002091079950331
leaf_count=38 20 37 25
internal_value=0 0.234992 0.700324
internal_weight=0 35.0338 21.6396
internal_count=120 82 45
shrinkage=0.1


Tree=20
num_leaves=5
num_cat=0
split_feature=3 3 2 2
split_gain=19.3419 0.829221 0.00062859 1.73351e-06
threshold=1.6500000000000001 1.3500000000000003 3.1500000000000004 1.4500000000000002
decision_type=2 2 2 2
left_child=1 2 3 -1
right_child=-2 -3 -4 -5
leaf_value=-0.062194266984559446 0.080752063662714479 -0.02429907072349214 -0.063319711646009968 -0.062120875007939697
leaf_weight=6.6198083460331016 18.09637451171875 7.862707555294036 7.3066738545894614 6.2633232176303864
leaf_count=21 37 20 22 20
internal_value=0 -0.518496 -0.625788 -0.621586
internal_weight=0 28.0525 20.1898 12.8831
internal_count=120 83 63 41
shrinkage=0.1


Tree=21
num_leaves=5
num_cat=0
split_feature=2 2 2 3
split_gain=20.6805 0.00764561 0.00033535 0.000103532
threshold=3.1500000000000004 1.4500000000000002 5.3500000000000005 1.3500000000000003
decision_type=2 2 2 2
left_child=1 -1 3 -2
right_child=2 -3 -4 -5
leaf_value=0.078759378427846 -0.061772500016082359 0.074771148382537886 -0.061255202617880082 -0.062271419218739126
leaf_weight=9.7362085878849047 6.7869757115840974 9.4938641190528852 6.8987089693546286 10.742684841156004
leaf_count=21 22 20 23 34
internal_value=0 0.767904 -0.618458 -0.620783
internal_weight=0 19.2301 24.4284 17.5297
internal_count=120 41 79 56
shrinkage=0.1


Tree=22
num_leaves=4
num_cat=0
split_feature=2 2 3
split_gain=6.35986 10.7024 0.103374
threshold=1.8 4.9500000000000011 1.3500000000000003
decision_type=2 2 2
left_child=-1 2 -2
right_child=1 -3 -4
leaf_value=-0.062490284161003967 0.071877469411566974 -0.050584953349306572 0.057920250303257904
leaf_weight=11.863267749547957 11.726372659206392 12.600851088762282 9.6929464340209943
leaf_count=38 25 36 21
internal_value=0 0.225415 0.655614
internal_weight=0 34.0202 21.4193
internal_count=120 82 46
shrinkage=0.1


Tree=23
num_leaves=5
num_cat=0
split_feature=2 2 0 2
split_gain=16.9664 0.618757 0.0848592 0.000916566
threshold=4.7500000000000009 5.3500000000000005 5.0500000000000007 3.6000000000000005
decision_type=2 2 2 2
left_child=2 -2 -1 -4
right_child=1 -3 3 -5
leaf_value=-0.049209024878771712 0.048066885703741298 0.082674810678609656 -0.060934340333896699 -0.062511035920599006
leaf_weight=7.8640855550766018 9.8288838565349597 10.890176147222517 5.8716145604848853 9.9092894792556745
leaf_count=26 20 23 20 31
internal_value=0 0.662572 -0.576954 -0.619244
internal_weight=0 20.7191 23.645 15.7809
internal_count=120 43 77 51
shrinkage=0.1


Tree=24
num_leaves=5
num_cat=0
split_feature=2 2 2 3
split_gain=18.3491 0.00829677 0.000396398 0.000147268
threshold=3.1500000000000004 1.4500000000000002 5.3500000000000005 1.3500000000000003
decision_type=2 2 2 2
left_child=1 -1 3 -2
right_child=2 -3 -4 -5
leaf_value=0.075093799145856205 -0.060615164041302828 0.070866052167830471 -0.060066566875378119 -0.06122887480339833
leaf_weight=9.3448050320148486 6.3556726574897828 9.2233860194683057 6.4166198670864096 10.161296457052229
leaf_count=21 22 20 23 34
internal_value=0 0.729937 -0.607336 -0.609927
internal_weight=0 18.5682 22.9336 16.517
internal_count=120 41 79 56
shrinkage=0.1


Tree=25
num_leaves=4
num_cat=0
split_feature=2 3 3
split_gain=5.65434 9.46926 0.0718245
threshold=1.8 1.6500000000000001 1.3500000000000003
decision_type=2 2 2
left_child=-1 2 -2
right_child=1 -3 -4
leaf_value=-0.061204769323608965 0.067924360674920234 -0.048346621970653314 0.056092433636882093
leaf_weight=11.070044815540312 11.379201889038088 12.238542914390562 9.3429786860942823
leaf_count=38 25 37 20
internal_value=0 0.213983 0.625897
internal_weight=0 32.9607 20.7222
internal_count=120 82 45
shrinkage=0.1


Tree=26
num_leaves=5
num_cat=0
split_feature=3 3 1 0
split_gain=14.9362 0.759854 0.000253696 4.14647e-07
threshold=1.6500000000000001 1.3500000000000003 2.9500000000000006 5.0500000000000007
decision_type=2 2 2 2
left_child=1 2 -1 -4
right_child=-2 -3 3 -5
leaf_value=-0.060702264585785294 0.071753318199295577 -0.022224721080424791 -0.059901208012051815 -0.059939969235825077
leaf_weight=6.6556329876184526 17.306308925151825 7.4949984550476065 5.5136595815420133 5.5257012248039246
leaf_count=23 37 20 20 20
internal_value=0 -0.489111 -0.602146 -0.599206
internal_weight=0 25.19 17.695 11.0394
internal_count=120 83 63 40
shrinkage=0.1


Tree=27
num_leaves=5
num_cat=0
split_feature=2 2 2 2
split_gain=16.3006 0.00887347 0.000347504 0.00013402
threshold=3.1500000000000004 1.4500000000000002 5.3500000000000005 4.4500000000000011
decision_type=2 2 2 2
left_child=1 -1 3 -2
right_child=2 -3 -4 -5
leaf_value=0.071909567981538455 -0.059642129978814441 0.067444783006592013 -0.059078402634999666 -0.060234998742521507
leaf_weight=8.8975811898708361 6.7751908004283932 8.9078551530837995 5.9808597564697257 8.7205574810504896
leaf_count=21 25 20 23 31
internal_value=0 0.696759 -0.597259 -0.599758
internal_weight=0 17.8054 21.4766 15.4957
internal_count=120 41 79 56
shrinkage=0.1


Tree=28
num_leaves=4
num_cat=0
split_feature=3 2 3
split_gain=5.09412 8.41674 0.0753069
threshold=0.45000000000000007 4.9500000000000011 1.3500000000000003
decision_type=2 2 2
left_child=-1 2 -2
right_child=1 -3 -4
leaf_value=-0.060234952652676248 0.06494642849737324 -0.047703465445537135 0.05272377213641799
leaf_weight=10.338962793350218 10.951937794685369 11.51990821957588 9.3395703732967359
leaf_count=38 25 36 21
internal_value=0 0.205639 0.593207
internal_weight=0 31.8114 20.2915
internal_count=120 82 46
shrinkage=0.1


Tree=29
num_leaves=5
num_cat=0
split_feature=3 3 1 0
split_gain=12.9767 0.770939 0.000206166 6.89036e-07
threshold=1.6500000000000001 1.3500000000000003 2.9500000000000006 5.0500000000000007
decision_type=2 2 2 2
left_child=1 2 -1 -4
right_child=-2 -3 3 -5
leaf_value=-0.059650738152104379 0.067629927425266731 -0.020242613537504815 -0.058894866746541132 -0.058946687383705454
leaf_weight=6.2115933597087922 16.777641952037811 7.3462875783443442 5.1226765662431699 5.1408777981996536
leaf_count=23 37 20 20 20
internal_value=0 -0.471832 -0.59196 -0.589208
internal_weight=0 23.8214 16.4751 10.2636
internal_count=120 83 63 40
shrinkage=0.1


end of trees

feature importances:
Column_2=55
Column_3=32
Column_0=10
Column_1=8

parameters:
[boosting: gbdt]
[objective: multiclass]
[metric: multi_logloss]
[tree_learner: serial]
[device_type: cpu]
[data: ]
[valid: ]
[num_iterations: 100]
[learning_rate: 0.1]
[num_leaves: 31]
[num_threads: 0]
[max_depth: -1]
[min_data_in_leaf: 20]
[min_sum_hessian_in_leaf: 0.001]
[bagging_fraction: 0.9]
[pos_bagging_fraction: 1]
[neg_bagging_fraction: 1]
[bagging_freq: 0]
[bagging_seed: 400]
[feature_fraction: 0.8]
[feature_fraction_bynode: 1]
[feature_fraction_seed: 30056]
[early_stopping_round: 0]
[first_metric_only: 0]
[max_delta_step: 0]
[lambda_l1: 0]
[lambda_l2: 0]
[min_gain_to_split: 0]
[drop_rate: 0.1]
[max_drop: 50]
[skip_drop: 0.5]
[xgboost_dart_mode: 0]
[uniform_drop: 0]
[drop_seed: 17869]
[top_rate: 0.2]
[other_rate: 0.1]
[min_data_per_group: 100]
[max_cat_threshold: 32]
[cat_l2: 10]
[cat_smooth: 10]
[max_cat_to_onehot: 4]
[top_k: 20]
[monotone_constraints: ]
[feature_contri: ]
[forcedsplits_filename: ]
[forcedbins_filename: ]
[refit_decay_rate: 0.9]
[cegb_tradeoff: 1]
[cegb_penalty_split: 0]
[cegb_penalty_feature_lazy: ]
[cegb_penalty_feature_coupled: ]
[verbosity: 1]
[max_bin: 255]
[max_bin_by_feature: ]
[min_data_in_bin: 3]
[bin_construct_sample_cnt: 200000]
[histogram_pool_size: -1]
[data_random_seed: 175]
[output_model: LightGBM_model.txt]
[snapshot_freq: -1]
[input_model: ]
[output_result: LightGBM_predict_result.txt]
[initscore_filename: ]
[valid_data_initscores: ]
[pre_partition: 0]
[enable_bundle: 1]
[max_conflict_rate: 0]
[is_enable_sparse: 1]
[sparse_threshold: 0.8]
[use_missing: 1]
[zero_as_missing: 0]
[two_round: 0]
[save_binary: 0]
[header: 0]
[label_column: ]
[weight_column: ]
[group_column: ]
[ignore_column: ]
[categorical_feature: ]
[predict_raw_score: 0]
[predict_leaf_index: 0]
[predict_contrib: 0]
[num_iteration_predict: -1]
[pred_early_stop: 0]
[pred_early_stop_freq: 10]
[pred_early_stop_margin: 10]
[convert_model_language: ]
[convert_model: gbdt_prediction.cpp]
[num_class: 3]
[is_unbalance: 0]
[scale_pos_weight: 1]
[sigmoid: 1]
[boost_from_average: 1]
[reg_sqrt: 0]
[alpha: 0.9]
[fair_c: 1]
[poisson_max_delta_step: 0.7]
[tweedie_variance_power: 1.5]
[max_position: 20]
[lambdamart_norm: 1]
[label_gain: ]
[metric_freq: 1]
[is_provide_training_metric: 0]
[eval_at: ]
[multi_error_top_k: 1]
[num_machines: 1]
[local_listen_port: 12400]
[time_out: 120]
[machine_list_filename: ]
[machines: ]
[gpu_platform_id: -1]
[gpu_device_id: -1]
[gpu_use_dp: 0]

end of parameters

pandas_categorical:null
