tree
version=v3
num_class=3
num_tree_per_iteration=3
label_index=0
max_feature_idx=3
objective=multiclass num_class:3
feature_names=Column_0 Column_1 Column_2 Column_3
feature_infos=[4.2999999999999998:7.7000000000000002] [2:4.4000000000000004] [1:6.7000000000000002] [0.10000000000000001:2.5]
tree_sizes=422 520 522 638 519 538 644 536 643 642 536 539 648 537 644 642 520 538 645 538 642 640 534 539 646 538 640 641 520 536

Tree=0
num_leaves=3
num_cat=0
split_feature=2 2
split_gain=57.8049 0.057622
threshold=3.1500000000000004 1.4500000000000002
decision_type=2 2
left_child=1 -1
right_child=-2 -3
leaf_value=-1.094112288567527 -1.1008622887184012 -1.0944497885750706
leaf_weight=9.3333334028720873 35.111111372709274 8.8888889551162702
leaf_count=21 79 20
internal_value=0 1.44512
internal_weight=0 18.2222
internal_count=120 41
shrinkage=1


Tree=1
num_leaves=4
num_cat=0
split_feature=1 1 0
split_gain=11.2636 2.92286 0.667417
threshold=3.2500000000000004 2.6500000000000008 6.2500000000000009
decision_type=2 2 2
left_child=1 -1 -3
right_child=-2 2 -4
leaf_value=-1.0715300495141071 -1.0760129147480011 -1.073059933517118 -1.0739752487325946
leaf_weight=8.9972221851348859 16.194999933242798 15.295277714729311 13.49583327770233
leaf_count=20 36 34 30
internal_value=0 0.299034 0.143563
internal_weight=0 37.7883 28.7911
internal_count=120 84 64
shrinkage=1


Tree=2
num_leaves=4
num_cat=0
split_feature=2 2 2
split_gain=47.6795 1.52389 0.0789334
threshold=4.7500000000000009 5.3500000000000005 4.1500000000000012
decision_type=2 2 2
left_child=2 -2 -1
right_child=1 -3 -4
leaf_value=-1.1261523187991489 -1.1210241136570103 -1.1193147119429643 -1.125826718472664
leaf_weight=24.569999933242798 8.7749999761581439 10.091249972581862 9.2137499749660474
leaf_count=56 20 23 21
internal_value=0 1.27344 -0.711141
internal_weight=0 18.8662 33.7837
internal_count=120 43 77
shrinkage=1


Tree=3
num_leaves=5
num_cat=0
split_feature=0 1 0 1
split_gain=40.0753 2.7182 0.652074 3.69108e-08
threshold=5.4500000000000011 3.3500000000000001 5.8500000000000005 3.0500000000000003
decision_type=2 2 2 2
left_child=1 -1 -2 -4
right_child=2 -3 3 -5
leaf_value=0.0022431754554659016 -0.0013280856310204623 0.0044807101610620957 -0.002247389852370277 -0.0022476336164106705
leaf_weight=9.3427509367465991 9.7732382714748365 10.244130969047545 15.093508720397951 8.8795044720172864
leaf_count=21 22 23 34 20
internal_value=0 1.13781 -0.660405 -0.74916
internal_weight=0 19.5869 33.7463 23.973
internal_count=120 44 76 54
shrinkage=0.003


Tree=4
num_leaves=4
num_cat=0
split_feature=2 3 3
split_gain=14.3936 29.7326 0.352073
threshold=1.8 1.6500000000000001 1.3500000000000003
decision_type=2 2 2
left_child=-1 2 -2
right_child=1 -3 -4
leaf_value=-0.0022767475176251597 0.0038482145812413523 -0.0019173328749883263 0.003052312904437064
leaf_weight=17.082625061273575 11.257683962583544 16.640846192836761 9.0020519495010358
leaf_count=38 25 37 20
internal_value=0 0.351332 1.16486
internal_weight=0 36.9006 20.2597
internal_count=120 82 45
shrinkage=0.003


Tree=5
num_leaves=4
num_cat=0
split_feature=0 0 1
split_gain=20.5849 2.14873 0.417108
threshold=5.7500000000000009 6.2500000000000009 3.0500000000000003
decision_type=2 2 2
left_child=2 -2 -1
right_child=1 -3 -4
leaf_value=-0.0014602099882564596 0.00070593259015884263 0.0025021953271470538 -0.0022196485131886524
leaf_weight=11.836659938097002 9.2178822457790393 17.134664118289948 14.460627704858778
leaf_count=27 21 39 33
internal_value=0 0.624626 -0.625939
internal_weight=0 26.3525 26.2973
internal_count=120 60 60
shrinkage=0.003


Tree=6
num_leaves=5
num_cat=0
split_feature=2 2 2 3
split_gain=57.2591 0.0578313 2.33088e-06 3.87364e-07
threshold=3.1500000000000004 1.4500000000000002 4.5500000000000007 1.8500000000000003
decision_type=2 2 2 2
left_child=1 -1 -2 -4
right_child=2 -3 3 -5
leaf_value=0.0044674073642368087 -0.0022466637688817147 0.0041299172282841046 -0.002244660805970185 -0.0022454620699600639
leaf_weight=9.3671255707740801 13.313446074724196 8.9223106205463392 10.6411649286747 11.088560730218886
leaf_count=21 30 20 24 25
internal_value=0 1.43426 -0.748558 -0.748357
internal_weight=0 18.2894 35.0432 21.7297
internal_count=120 41 79 49
shrinkage=0.003


Tree=7
num_leaves=4
num_cat=0
split_feature=1 1 0
split_gain=11.1871 2.88805 0.661557
threshold=3.2500000000000004 2.6500000000000008 6.2500000000000009
decision_type=2 2 2
left_child=1 -1 -3
right_child=-2 2 -4
leaf_value=0.002374705581355557 -0.0020886860162126187 0.00085602695187450236 -5.5142929462694874e-05
leaf_weight=9.0160234570503217 16.166933298110962 15.30536398291588 13.494552940130232
leaf_count=20 36 34 30
internal_value=0 0.297653 0.143029
internal_weight=0 37.8159 28.7999
internal_count=120 84 64
shrinkage=0.003


Tree=8
num_leaves=5
num_cat=0
split_feature=2 2 2 3
split_gain=47.3061 1.4996 0.0772309 3.64518e-07
threshold=4.7500000000000009 5.3500000000000005 4.1500000000000012 0.35000000000000003
decision_type=2 2 2 2
left_child=2 -2 3 -1
right_child=1 -3 -4 -5
leaf_value=-0.0022175874938949263 0.0028903650117059528 0.0045837052637744593 -0.0018956839637182127 -0.0022183310099379485
leaf_weight=14.446019887924196 8.7940493524074572 10.127179265022276 9.2101100385189039 10.072103559970854
leaf_count=33 20 23 21 23
internal_value=0 1.26556 -0.709969 -0.739298
internal_weight=0 18.9212 33.7282 24.5181
internal_count=120 43 77 56
shrinkage=0.003


Tree=9
num_leaves=5
num_cat=0
split_feature=0 1 0 1
split_gain=39.6782 2.66903 0.648696 3.75465e-07
threshold=5.4500000000000011 3.3500000000000001 5.8500000000000005 3.0500000000000003
decision_type=2 2 2 2
left_child=1 -1 -2 -4
right_child=2 -3 3 -5
leaf_value=0.0022288384187252532 -0.0013248108284715909 0.0044425954042417249 -0.0022421757490724936 -0.0022429540648012296
leaf_weight=9.3624745607376116 9.7629741430282575 10.287410497665403 15.057980358600618 8.8607769906520826
leaf_count=21 22 23 34 20
internal_value=0 1.12927 -0.658824 -0.747488
internal_weight=0 19.6499 33.6817 23.9188
internal_count=120 44 76 54
shrinkage=0.003


Tree=10
num_leaves=4
num_cat=0
split_feature=3 3 3
split_gain=14.314 29.5448 0.346654
threshold=0.45000000000000007 1.6500000000000001 1.3500000000000003
decision_type=2 2 2
left_child=-1 2 -2
right_child=1 -3 -4
leaf_value=-0.0022729937852530371 0.0038290524731104053 -0.0019150530392151425 0.0030400338268424215
leaf_weight=17.056201487779617 11.282688081264498 16.627275794744492 9.0162070393562299
leaf_count=38 25 37 20
internal_value=0 0.349973 1.15953
internal_weight=0 36.9262 20.2989
internal_count=120 82 45
shrinkage=0.003


Tree=11
num_leaves=4
num_cat=0
split_feature=0 0 1
split_gain=20.3949 2.11898 0.416326
threshold=5.7500000000000009 6.2500000000000009 3.0500000000000003
decision_type=2 2 2
left_child=2 -2 -1
right_child=1 -3 -4
leaf_value=-0.0014554284989473935 0.00070173837156902016 0.0024842201149617993 -0.0022149105781775202
leaf_weight=11.816414773464205 9.2255502939224261 17.179790049791336 14.426937907934187
leaf_count=27 21 39 33
internal_value=0 0.620484 -0.624315
internal_weight=0 26.4053 26.2434
internal_count=120 60 60
shrinkage=0.003


Tree=12
num_leaves=5
num_cat=0
split_feature=2 2 2 3
split_gain=56.7215 0.0580313 9.16759e-06 1.50611e-06
threshold=3.1500000000000004 1.4500000000000002 4.5500000000000007 1.8500000000000003
decision_type=2 2 2 2
left_child=1 -1 -2 -4
right_child=2 -3 3 -5
leaf_value=0.0044353592186573022 -0.0022433493366586801 0.0040978951010578702 -0.0022393778515580253 -0.0022409595679343504
leaf_weight=9.4003311693668383 13.293456375598906 8.9551245272159559 10.615554898977281 11.065907478332518
leaf_count=21 30 20 24 25
internal_value=0 1.42357 -0.747129 -0.746728
internal_weight=0 18.3555 34.9749 21.6815
internal_count=120 41 79 49
shrinkage=0.003


Tree=13
num_leaves=4
num_cat=0
split_feature=1 1 0
split_gain=11.1111 2.85371 0.655736
threshold=3.2500000000000004 2.6500000000000008 6.2500000000000009
decision_type=2 2 2
left_child=1 -1 -3
right_child=-2 2 -4
leaf_value=0.0023599459617679717 -0.0020841534509713606 0.00085234162138528291 -5.469928127571342e-05
leaf_weight=9.0345464348793012 16.138658881187439 15.31523045897484 13.493149876594542
leaf_count=20 36 34 30
internal_value=0 0.296284 0.142502
internal_weight=0 37.8429 28.8084
internal_count=120 84 64
shrinkage=0.003


Tree=14
num_leaves=5
num_cat=0
split_feature=2 2 2 3
split_gain=46.9372 1.47594 0.0755663 1.14629e-06
threshold=4.7500000000000009 5.3500000000000005 4.1500000000000012 0.35000000000000003
decision_type=2 2 2 2
left_child=2 -2 3 -1
right_child=1 -3 -4 -5
leaf_value=-0.0022130543305858442 0.0028749145826119146 0.0045525237557737727 -0.0018947395991187313 -0.0022143741942228083
leaf_weight=14.413604229688646 8.8128793537616747 10.162565141916273 9.2063995003700239 10.052396506071089
leaf_count=33 20 23 21 23
internal_value=0 1.25779 -0.708806 -0.737866
internal_weight=0 18.9754 33.6724 24.466
internal_count=120 43 77 56
shrinkage=0.003


Tree=15
num_leaves=5
num_cat=0
split_feature=0 1 0 1
split_gain=39.2868 2.61951 0.645367 1.04343e-06
threshold=5.4500000000000011 3.3500000000000001 5.8500000000000005 3.0500000000000003
decision_type=2 2 2 2
left_child=1 -1 -2 -4
right_child=2 -3 3 -5
leaf_value=0.0022150056514367578 -0.001321550830632264 0.0044047982711116138 -0.0022370134208755288 -0.0022383123488133698
leaf_weight=9.3814162313938159 9.7526177465915662 10.330300033092497 15.022299587726595 8.8419650197029096
leaf_count=21 22 23 34 20
internal_value=0 1.12087 -0.657257 -0.745832
internal_weight=0 19.7117 33.6169 23.8643
internal_count=120 44 76 54
shrinkage=0.003


Tree=16
num_leaves=4
num_cat=0
split_feature=2 3 3
split_gain=14.2306 29.3535 0.340441
threshold=1.8 1.6500000000000001 1.3500000000000003
decision_type=2 2 2
left_child=-1 2 -2
right_child=1 -3 -4
leaf_value=-0.0022690556379988264 0.0038090419504391341 -0.0019127716860782421 0.0030278634121370025
leaf_weight=17.028152734041214 11.308753281831743 16.613592088222504 9.0302139818668348
leaf_count=38 25 37 20
internal_value=0 0.348553 1.15407
internal_weight=0 36.9526 20.339
internal_count=120 82 45
shrinkage=0.003


Tree=17
num_leaves=4
num_cat=0
split_feature=0 0 1
split_gain=20.207 2.08977 0.415553
threshold=5.7500000000000009 6.2500000000000009 3.0500000000000003
decision_type=2 2 2
left_child=2 -2 -1
right_child=1 -3 -4
leaf_value=-0.0014506689356881773 0.00069758477555521359 0.0024664711917169436 -0.0022102070665826934
leaf_weight=11.796091318130495 9.2330848276615161 17.224229782819748 14.393072456121443
leaf_count=27 21 39 33
internal_value=0 0.616388 -0.622699
internal_weight=0 26.4573 26.1892
internal_count=120 60 60
shrinkage=0.003


Tree=18
num_leaves=5
num_cat=0
split_feature=2 2 2 3
split_gain=56.1921 0.0582213 2.02848e-05 3.29447e-06
threshold=3.1500000000000004 1.4500000000000002 4.5500000000000007 1.8500000000000003
decision_type=2 2 2 2
left_child=1 -1 -2 -4
right_child=2 -3 3 -5
leaf_value=0.0044038429968919985 -0.0022400568418496662 0.0040664228218822039 -0.0022341503495549994 -0.0022364923167867284
leaf_weight=9.4329521656036395 13.27336725592613 8.9873309433460218 10.58984011411667 11.043152898550032
leaf_count=21 30 20 24 25
internal_value=0 1.41307 -0.745712 -0.745115
internal_weight=0 18.4203 34.9064 21.633
internal_count=120 41 79 49
shrinkage=0.003


Tree=19
num_leaves=4
num_cat=0
split_feature=1 1 0
split_gain=11.0356 2.81985 0.649957
threshold=3.2500000000000004 2.6500000000000008 6.2500000000000009
decision_type=2 2 2
left_child=1 -1 -3
right_child=-2 2 -4
leaf_value=0.0023453466760490352 -0.0020796427943913626 0.00084868666031379103 -5.4242082432870575e-05
leaf_weight=9.052790701389311 16.110171675682068 15.324876844882967 13.491624683141707
leaf_count=20 36 34 30
internal_value=0 0.294928 0.141981
internal_weight=0 37.8693 28.8165
internal_count=120 84 64
shrinkage=0.003


Tree=20
num_leaves=5
num_cat=0
split_feature=2 2 2 3
split_gain=46.5728 1.4529 0.073939 2.76597e-06
threshold=4.7500000000000009 5.3500000000000005 4.1500000000000012 0.35000000000000003
decision_type=2 2 2 2
left_child=2 -2 3 -1
right_child=1 -3 -4 -5
leaf_value=-0.0022084901566791753 0.0028596288916014796 0.0045218291263207557 -0.0018937889363356472 -0.002210542530923777
leaf_weight=14.380552172660829 8.8314915001392382 10.197409927844999 9.2026200294494611 10.033080071210859
leaf_count=33 20 23 21 23
internal_value=0 1.25013 -0.707651 -0.736445
internal_weight=0 19.0289 33.6163 24.4136
internal_count=120 43 77 56
shrinkage=0.003


Tree=21
num_leaves=5
num_cat=0
split_feature=0 1 0 1
split_gain=38.901 2.57313 0.642088 2.09213e-06
threshold=5.4500000000000011 3.3500000000000001 5.8500000000000005 2.9500000000000006
decision_type=2 2 2 2
left_child=1 -1 -2 -4
right_child=2 -3 3 -5
leaf_value=0.0022010091100750527 -0.0013183059150811884 0.0043681015745584738 -0.0022314563115850583 -0.0022332806628125087
leaf_weight=9.4004877507686633 9.7421709001064283 10.371890544891356 9.2543961405754107 14.55514359474182
leaf_count=21 22 23 21 33
internal_value=0 1.1126 -0.655701 -0.744191
internal_weight=0 19.7724 33.5517 23.8095
internal_count=120 44 76 54
shrinkage=0.003


Tree=22
num_leaves=4
num_cat=0
split_feature=3 3 3
split_gain=14.1511 29.168 0.335077
threshold=0.45000000000000007 1.6500000000000001 1.3500000000000003
decision_type=2 2 2
left_child=-1 2 -2
right_child=1 -3 -4
leaf_value=-0.0022652941025993324 0.0037900966500881944 -0.0019104888620016768 0.003015800219540227
leaf_weight=17.001016229391098 11.333333373069765 16.59979572892189 9.0440737605094892
leaf_count=38 25 37 20
internal_value=0 0.347203 1.14881
internal_weight=0 36.9772 20.3774
internal_count=120 82 45
shrinkage=0.003


Tree=23
num_leaves=4
num_cat=0
split_feature=0 0 1
split_gain=20.0211 2.06109 0.414792
threshold=5.7500000000000009 6.2500000000000009 3.0500000000000003
decision_type=2 2 2
left_child=2 -2 -1
right_child=1 -3 -4
leaf_value=-0.0014459312408424297 0.00069347099784081915 0.0024489443636691623 -0.0022055390464328201
leaf_weight=11.775691986083986 9.2404870390892047 17.267986744642258 14.359028100967405
leaf_count=27 21 39 33
internal_value=0 0.612337 -0.621093
internal_weight=0 26.5085 26.1347
internal_count=120 60 60
shrinkage=0.003


Tree=24
num_leaves=5
num_cat=0
split_feature=2 2 2 3
split_gain=55.6705 0.0584025 3.5463e-05 5.69476e-06
threshold=3.1500000000000004 1.4500000000000002 4.5500000000000007 1.8500000000000003
decision_type=2 2 2 2
left_child=1 -1 -2 -4
right_child=2 -3 3 -5
leaf_value=0.0043728465787056621 -0.002236785848543889 0.0040354845495138751 -0.0022289774461520979 -0.0022320600449365745
leaf_weight=9.4649912714958209 13.253179252147673 9.0189338624477369 10.564023315906526 11.020298480987547
leaf_count=21 30 20 24 25
internal_value=0 1.40275 -0.744308 -0.743517
internal_weight=0 18.4839 34.8375 21.5843
internal_count=120 41 79 49
shrinkage=0.003


Tree=25
num_leaves=4
num_cat=0
split_feature=1 1 0
split_gain=10.9608 2.78646 0.644217
threshold=3.2500000000000004 2.6500000000000008 6.2500000000000009
decision_type=2 2 2
left_child=1 -1 -3
right_child=-2 2 -4
leaf_value=0.0023309040929843814 -0.0020751525869750721 0.00084506130844769092 -5.3771594019736974e-05
leaf_weight=9.0707584321498853 16.081478327512741 15.334305316209795 13.489979088306425
leaf_count=20 36 34 30
internal_value=0 0.293584 0.141467
internal_weight=0 37.895 28.8243
internal_count=120 84 64
shrinkage=0.003


Tree=26
num_leaves=5
num_cat=0
split_feature=2 2 2 3
split_gain=46.2127 1.43045 0.072348 4.50806e-06
threshold=4.7500000000000009 5.3500000000000005 4.1500000000000012 0.35000000000000003
decision_type=2 2 2 2
left_child=2 -2 3 -1
right_child=1 -3 -4 -5
leaf_value=-0.0022040246926797475 0.0028445051160868465 0.0044916111703374624 -0.0018928319652106035 -0.0022066476090731551
leaf_weight=14.3478179872036 8.8498870730400103 10.23171555995941 9.1987718641757947 10.013208001852034
leaf_count=33 20 23 21 23
internal_value=0 1.24257 -0.706503 -0.735034
internal_weight=0 19.0816 33.5598 24.361
internal_count=120 43 77 56
shrinkage=0.003


Tree=27
num_leaves=5
num_cat=0
split_feature=0 1 0 1
split_gain=38.5206 2.52636 0.638856 3.5778e-06
threshold=5.4500000000000011 3.3500000000000001 5.8500000000000005 2.9500000000000006
decision_type=2 2 2 2
left_child=1 -1 -2 -4
right_child=2 -3 3 -5
leaf_value=0.0021875057739515653 -0.0013150756527881967 0.0043316971572550508 -0.0022262337408966385 -0.0022286223119180101
leaf_weight=9.418792277574541 9.7316340208053571 10.413084656000136 9.2314301729202288 14.523158371448515
leaf_count=21 22 23 21 33
internal_value=0 1.10445 -0.654158 -0.742565
internal_weight=0 19.8319 33.4862 23.7546
internal_count=120 44 76 54
shrinkage=0.003


Tree=28
num_leaves=4
num_cat=0
split_feature=2 3 3
split_gain=14.0699 28.9815 0.329352
threshold=1.8 1.6500000000000001 1.3500000000000003
decision_type=2 2 2
left_child=-1 2 -2
right_child=1 -3 -4
leaf_value=-0.0022614426706963693 0.0037707971308050007 -0.0019082048496162616 0.0030038427341952134
leaf_weight=16.972908437252045 11.358323454856874 16.585888087749481 9.0577872395515424
leaf_count=38 25 37 20
internal_value=0 0.345827 1.14351
internal_weight=0 37.002 20.4161
internal_count=120 82 45
shrinkage=0.003


Tree=29
num_leaves=4
num_cat=0
split_feature=0 0 1
split_gain=19.8373 2.03294 0.414039
threshold=5.7500000000000009 6.2500000000000009 3.0500000000000003
decision_type=2 2 2
left_child=2 -2 -1
right_child=1 -3 -4
leaf_value=-0.0014412149030670761 0.00068939669735086423 0.0024316354106404311 -0.0022009045023980208
leaf_weight=11.755218088626863 9.2477578520774859 17.311064004898071 14.324813187122343
leaf_count=27 21 39 33
internal_value=0 0.60833 -0.619495
internal_weight=0 26.5588 26.08
internal_count=120 60 60
shrinkage=0.003


end of trees

feature importances:
Column_2=32
Column_0=25
Column_1=25
Column_3=20

parameters:
[boosting: gbdt]
[objective: multiclass]
[metric: multi_logloss]
[tree_learner: serial]
[device_type: cpu]
[data: ]
[valid: ]
[num_iterations: 100]
[learning_rate: 0.003]
[num_leaves: 31]
[num_threads: 0]
[max_depth: -1]
[min_data_in_leaf: 20]
[min_sum_hessian_in_leaf: 0.001]
[bagging_fraction: 0.5]
[pos_bagging_fraction: 1]
[neg_bagging_fraction: 1]
[bagging_freq: 0]
[bagging_seed: 400]
[feature_fraction: 0.6]
[feature_fraction_bynode: 1]
[feature_fraction_seed: 30056]
[early_stopping_round: 0]
[first_metric_only: 0]
[max_delta_step: 0]
[lambda_l1: 0]
[lambda_l2: 0]
[min_gain_to_split: 0]
[drop_rate: 0.1]
[max_drop: 50]
[skip_drop: 0.5]
[xgboost_dart_mode: 0]
[uniform_drop: 0]
[drop_seed: 17869]
[top_rate: 0.2]
[other_rate: 0.1]
[min_data_per_group: 100]
[max_cat_threshold: 32]
[cat_l2: 10]
[cat_smooth: 10]
[max_cat_to_onehot: 4]
[top_k: 20]
[monotone_constraints: ]
[feature_contri: ]
[forcedsplits_filename: ]
[forcedbins_filename: ]
[refit_decay_rate: 0.9]
[cegb_tradeoff: 1]
[cegb_penalty_split: 0]
[cegb_penalty_feature_lazy: ]
[cegb_penalty_feature_coupled: ]
[verbosity: 1]
[max_bin: 255]
[max_bin_by_feature: ]
[min_data_in_bin: 3]
[bin_construct_sample_cnt: 200000]
[histogram_pool_size: -1]
[data_random_seed: 175]
[output_model: LightGBM_model.txt]
[snapshot_freq: -1]
[input_model: ]
[output_result: LightGBM_predict_result.txt]
[initscore_filename: ]
[valid_data_initscores: ]
[pre_partition: 0]
[enable_bundle: 1]
[max_conflict_rate: 0]
[is_enable_sparse: 1]
[sparse_threshold: 0.8]
[use_missing: 1]
[zero_as_missing: 0]
[two_round: 0]
[save_binary: 0]
[header: 0]
[label_column: ]
[weight_column: ]
[group_column: ]
[ignore_column: ]
[categorical_feature: ]
[predict_raw_score: 0]
[predict_leaf_index: 0]
[predict_contrib: 0]
[num_iteration_predict: -1]
[pred_early_stop: 0]
[pred_early_stop_freq: 10]
[pred_early_stop_margin: 10]
[convert_model_language: ]
[convert_model: gbdt_prediction.cpp]
[num_class: 3]
[is_unbalance: 0]
[scale_pos_weight: 1]
[sigmoid: 1]
[boost_from_average: 1]
[reg_sqrt: 0]
[alpha: 0.9]
[fair_c: 1]
[poisson_max_delta_step: 0.7]
[tweedie_variance_power: 1.5]
[max_position: 20]
[lambdamart_norm: 1]
[label_gain: ]
[metric_freq: 1]
[is_provide_training_metric: 0]
[eval_at: ]
[multi_error_top_k: 1]
[num_machines: 1]
[local_listen_port: 12400]
[time_out: 120]
[machine_list_filename: ]
[machines: ]
[gpu_platform_id: -1]
[gpu_device_id: -1]
[gpu_use_dp: 0]

end of parameters

pandas_categorical:null
